digraph Tree {
node [shape=box] ;
0 [label="X[1354] <= 0.5\ngini = 0.529\nsamples = 861\nvalue = [131, 546, 184]"] ;
1 [label="X[1350] <= 0.5\ngini = 0.506\nsamples = 806\nvalue = [128, 532, 146]"] ;
0 -> 1 [labeldistance=2.5, labelangle=45, headlabel="True"] ;
2 [label="X[41] <= 0.5\ngini = 0.482\nsamples = 762\nvalue = [106, 521, 135]"] ;
1 -> 2 ;
3 [label="X[385] <= 0.5\ngini = 0.47\nsamples = 751\nvalue = [95, 521, 135]"] ;
2 -> 3 ;
4 [label="X[732] <= 0.5\ngini = 0.454\nsamples = 735\nvalue = [82, 520, 133]"] ;
3 -> 4 ;
5 [label="X[273] <= 0.5\ngini = 0.433\nsamples = 713\nvalue = [68, 517, 128]"] ;
4 -> 5 ;
6 [label="X[156] <= 0.5\ngini = 0.422\nsamples = 705\nvalue = [60, 517, 128]"] ;
5 -> 6 ;
7 [label="X[15] <= 0.5\ngini = 0.392\nsamples = 662\nvalue = [52, 502, 108]"] ;
6 -> 7 ;
8 [label="X[1122] <= 0.5\ngini = 0.381\nsamples = 655\nvalue = [45, 502, 108]"] ;
7 -> 8 ;
9 [label="X[1448] <= 0.5\ngini = 0.37\nsamples = 649\nvalue = [39, 502, 108]"] ;
8 -> 9 ;
10 [label="X[1062] <= 0.5\ngini = 0.361\nsamples = 644\nvalue = [34, 502, 108]"] ;
9 -> 10 ;
11 [label="X[589] <= 0.5\ngini = 0.352\nsamples = 639\nvalue = [29, 502, 108]"] ;
10 -> 11 ;
12 [label="X[155] <= 0.5\ngini = 0.343\nsamples = 634\nvalue = [24, 502, 108]"] ;
11 -> 12 ;
13 [label="X[421] <= 0.5\ngini = 0.325\nsamples = 609\nvalue = [24, 491, 94]"] ;
12 -> 13 ;
14 [label="X[416] <= 0.5\ngini = 0.313\nsamples = 600\nvalue = [24, 489, 87]"] ;
13 -> 14 ;
15 [label="X[161] <= 0.5\ngini = 0.301\nsamples = 594\nvalue = [20, 489, 85]"] ;
14 -> 15 ;
16 [label="X[1190] <= 0.5\ngini = 0.292\nsamples = 590\nvalue = [16, 489, 85]"] ;
15 -> 16 ;
17 [label="X[1410] <= 0.5\ngini = 0.282\nsamples = 586\nvalue = [12, 489, 85]"] ;
16 -> 17 ;
18 [label="X[1299] <= 0.5\ngini = 0.273\nsamples = 582\nvalue = [8, 489, 85]"] ;
17 -> 18 ;
19 [label="X[299] <= 0.5\ngini = 0.264\nsamples = 578\nvalue = [8, 489, 81]"] ;
18 -> 19 ;
20 [label="X[1395] <= 0.5\ngini = 0.249\nsamples = 564\nvalue = [1, 482, 81]"] ;
19 -> 20 ;
21 [label="X[341] <= 0.5\ngini = 0.242\nsamples = 561\nvalue = [1, 482, 78]"] ;
20 -> 21 ;
22 [label="X[1004] <= 0.5\ngini = 0.236\nsamples = 557\nvalue = [1, 481, 75]"] ;
21 -> 22 ;
23 [label="X[929] <= 0.5\ngini = 0.232\nsamples = 555\nvalue = [1, 481, 73]"] ;
22 -> 23 ;
24 [label="X[855] <= 0.5\ngini = 0.227\nsamples = 553\nvalue = [1, 481, 71]"] ;
23 -> 24 ;
25 [label="X[825] <= 0.5\ngini = 0.222\nsamples = 551\nvalue = [1, 481, 69]"] ;
24 -> 25 ;
26 [label="X[172] <= 0.5\ngini = 0.217\nsamples = 549\nvalue = [1, 481, 67]"] ;
25 -> 26 ;
27 [label="X[1414] <= 0.5\ngini = 0.213\nsamples = 547\nvalue = [1, 481, 65]"] ;
26 -> 27 ;
28 [label="X[409] <= 0.5\ngini = 0.2\nsamples = 534\nvalue = [1, 474, 59]"] ;
27 -> 28 ;
29 [label="X[211] <= 0.5\ngini = 0.193\nsamples = 529\nvalue = [1, 472, 56]"] ;
28 -> 29 ;
30 [label="X[1390] <= 0.5\ngini = 0.188\nsamples = 526\nvalue = [1, 471, 54]"] ;
29 -> 30 ;
31 [label="X[989] <= 0.5\ngini = 0.18\nsamples = 520\nvalue = [1, 468, 51]"] ;
30 -> 31 ;
32 [label="X[316] <= 0.5\ngini = 0.172\nsamples = 515\nvalue = [0, 466, 49]"] ;
31 -> 32 ;
33 [label="X[561] <= 0.5\ngini = 0.169\nsamples = 514\nvalue = [0, 466, 48]"] ;
32 -> 33 ;
34 [label="X[926] <= 0.5\ngini = 0.166\nsamples = 513\nvalue = [0, 466, 47]"] ;
33 -> 34 ;
35 [label="X[536] <= 0.5\ngini = 0.164\nsamples = 512\nvalue = [0, 466, 46]"] ;
34 -> 35 ;
36 [label="X[1275] <= 0.5\ngini = 0.161\nsamples = 511\nvalue = [0, 466, 45]"] ;
35 -> 36 ;
37 [label="X[504] <= 0.5\ngini = 0.158\nsamples = 510\nvalue = [0, 466, 44]"] ;
36 -> 37 ;
38 [label="X[1332] <= 0.5\ngini = 0.155\nsamples = 509\nvalue = [0, 466, 43]"] ;
37 -> 38 ;
39 [label="X[891] <= 0.5\ngini = 0.152\nsamples = 508\nvalue = [0, 466, 42]"] ;
38 -> 39 ;
40 [label="X[500] <= 0.5\ngini = 0.149\nsamples = 507\nvalue = [0, 466, 41]"] ;
39 -> 40 ;
41 [label="X[160] <= 0.5\ngini = 0.146\nsamples = 506\nvalue = [0, 466, 40]"] ;
40 -> 41 ;
42 [label="X[1442] <= 0.5\ngini = 0.143\nsamples = 505\nvalue = [0, 466, 39]"] ;
41 -> 42 ;
43 [label="X[199] <= 0.5\ngini = 0.139\nsamples = 504\nvalue = [0, 466, 38]"] ;
42 -> 43 ;
44 [label="X[1085] <= 0.5\ngini = 0.136\nsamples = 503\nvalue = [0, 466, 37]"] ;
43 -> 44 ;
45 [label="X[1392] <= 0.5\ngini = 0.133\nsamples = 502\nvalue = [0, 466, 36]"] ;
44 -> 45 ;
46 [label="X[332] <= 0.5\ngini = 0.13\nsamples = 501\nvalue = [0, 466, 35]"] ;
45 -> 46 ;
47 [label="X[1181] <= 0.5\ngini = 0.127\nsamples = 500\nvalue = [0, 466, 34]"] ;
46 -> 47 ;
48 [label="X[998] <= 1.5\ngini = 0.124\nsamples = 499\nvalue = [0, 466, 33]"] ;
47 -> 48 ;
49 [label="X[903] <= 0.5\ngini = 0.12\nsamples = 498\nvalue = [0, 466, 32]"] ;
48 -> 49 ;
50 [label="X[31] <= 0.5\ngini = 0.117\nsamples = 497\nvalue = [0, 466, 31]"] ;
49 -> 50 ;
51 [label="X[1476] <= 0.5\ngini = 0.114\nsamples = 496\nvalue = [0, 466, 30]"] ;
50 -> 51 ;
52 [label="X[399] <= 0.5\ngini = 0.11\nsamples = 495\nvalue = [0, 466, 29]"] ;
51 -> 52 ;
53 [label="X[373] <= 0.5\ngini = 0.107\nsamples = 494\nvalue = [0, 466, 28]"] ;
52 -> 53 ;
54 [label="X[210] <= 0.5\ngini = 0.104\nsamples = 493\nvalue = [0, 466, 27]"] ;
53 -> 54 ;
55 [label="X[665] <= 0.5\ngini = 0.1\nsamples = 492\nvalue = [0, 466, 26]"] ;
54 -> 55 ;
56 [label="X[1490] <= 0.5\ngini = 0.097\nsamples = 491\nvalue = [0, 466, 25]"] ;
55 -> 56 ;
57 [label="X[375] <= 0.5\ngini = 0.093\nsamples = 490\nvalue = [0, 466, 24]"] ;
56 -> 57 ;
58 [label="X[1486] <= 0.5\ngini = 0.09\nsamples = 489\nvalue = [0, 466, 23]"] ;
57 -> 58 ;
59 [label="X[1337] <= 0.5\ngini = 0.086\nsamples = 488\nvalue = [0, 466, 22]"] ;
58 -> 59 ;
60 [label="X[802] <= 0.5\ngini = 0.083\nsamples = 487\nvalue = [0, 466, 21]"] ;
59 -> 60 ;
61 [label="X[1418] <= 0.5\ngini = 0.079\nsamples = 486\nvalue = [0, 466, 20]"] ;
60 -> 61 ;
62 [label="X[1245] <= 0.5\ngini = 0.075\nsamples = 485\nvalue = [0, 466, 19]"] ;
61 -> 62 ;
63 [label="X[1089] <= 0.5\ngini = 0.063\nsamples = 462\nvalue = [0, 447, 15]"] ;
62 -> 63 ;
64 [label="X[772] <= 0.5\ngini = 0.059\nsamples = 461\nvalue = [0, 447, 14]"] ;
63 -> 64 ;
65 [label="X[1117] <= 0.5\ngini = 0.055\nsamples = 459\nvalue = [0, 446, 13]"] ;
64 -> 65 ;
66 [label="X[457] <= 0.5\ngini = 0.051\nsamples = 457\nvalue = [0, 445, 12]"] ;
65 -> 66 ;
67 [label="X[948] <= 0.5\ngini = 0.047\nsamples = 455\nvalue = [0, 444, 11]"] ;
66 -> 67 ;
68 [label="X[1106] <= 0.5\ngini = 0.043\nsamples = 452\nvalue = [0, 442, 10]"] ;
67 -> 68 ;
69 [label="X[562] <= 0.5\ngini = 0.036\nsamples = 440\nvalue = [0, 432, 8]"] ;
68 -> 69 ;
70 [label="X[837] <= 0.5\ngini = 0.032\nsamples = 435\nvalue = [0, 428, 7]"] ;
69 -> 70 ;
71 [label="X[52] <= 0.5\ngini = 0.028\nsamples = 430\nvalue = [0, 424, 6]"] ;
70 -> 71 ;
72 [label="X[738] <= 0.5\ngini = 0.023\nsamples = 424\nvalue = [0, 419, 5]"] ;
71 -> 72 ;
73 [label="X[1115] <= 0.5\ngini = 0.019\nsamples = 415\nvalue = [0, 411, 4]"] ;
72 -> 73 ;
74 [label="X[47] <= 0.5\ngini = 0.015\nsamples = 408\nvalue = [0, 405, 3]"] ;
73 -> 74 ;
75 [label="X[129] <= 0.5\ngini = 0.005\nsamples = 376\nvalue = [0, 375, 1]"] ;
74 -> 75 ;
76 [label="X[1322] <= 0.5\ngini = 0.006\nsamples = 330\nvalue = [0, 329, 1]"] ;
75 -> 76 ;
77 [label="X[286] <= 0.5\ngini = 0.007\nsamples = 299\nvalue = [0, 298, 1]"] ;
76 -> 77 ;
78 [label="X[792] <= 0.5\ngini = 0.007\nsamples = 268\nvalue = [0, 267, 1]"] ;
77 -> 78 ;
79 [label="X[109] <= 0.5\ngini = 0.008\nsamples = 248\nvalue = [0, 247, 1]"] ;
78 -> 79 ;
80 [label="X[996] <= 0.5\ngini = 0.009\nsamples = 231\nvalue = [0, 230, 1]"] ;
79 -> 80 ;
81 [label="X[1429] <= 0.5\ngini = 0.009\nsamples = 218\nvalue = [0, 217, 1]"] ;
80 -> 81 ;
82 [label="X[1338] <= 0.5\ngini = 0.01\nsamples = 206\nvalue = [0, 205, 1]"] ;
81 -> 82 ;
83 [label="X[844] <= 0.5\ngini = 0.01\nsamples = 194\nvalue = [0, 193, 1]"] ;
82 -> 83 ;
84 [label="X[208] <= 0.5\ngini = 0.011\nsamples = 183\nvalue = [0, 182, 1]"] ;
83 -> 84 ;
85 [label="X[1273] <= 0.5\ngini = 0.011\nsamples = 173\nvalue = [0, 172, 1]"] ;
84 -> 85 ;
86 [label="X[1444] <= 0.5\ngini = 0.012\nsamples = 163\nvalue = [0, 162, 1]"] ;
85 -> 86 ;
87 [label="X[1473] <= 0.5\ngini = 0.013\nsamples = 153\nvalue = [0, 152, 1]"] ;
86 -> 87 ;
88 [label="X[942] <= 0.5\ngini = 0.014\nsamples = 144\nvalue = [0, 143, 1]"] ;
87 -> 88 ;
89 [label="X[120] <= 0.5\ngini = 0.015\nsamples = 136\nvalue = [0, 135, 1]"] ;
88 -> 89 ;
90 [label="X[815] <= 0.5\ngini = 0.015\nsamples = 129\nvalue = [0, 128, 1]"] ;
89 -> 90 ;
91 [label="X[389] <= 0.5\ngini = 0.016\nsamples = 122\nvalue = [0, 121, 1]"] ;
90 -> 91 ;
92 [label="X[1005] <= 0.5\ngini = 0.017\nsamples = 115\nvalue = [0, 114, 1]"] ;
91 -> 92 ;
93 [label="X[1312] <= 0.5\ngini = 0.018\nsamples = 109\nvalue = [0, 108, 1]"] ;
92 -> 93 ;
94 [label="X[881] <= 0.5\ngini = 0.019\nsamples = 103\nvalue = [0, 102, 1]"] ;
93 -> 94 ;
95 [label="X[864] <= 0.5\ngini = 0.02\nsamples = 97\nvalue = [0, 96, 1]"] ;
94 -> 95 ;
96 [label="X[674] <= 0.5\ngini = 0.022\nsamples = 91\nvalue = [0, 90, 1]"] ;
95 -> 96 ;
97 [label="X[1131] <= 0.5\ngini = 0.023\nsamples = 86\nvalue = [0, 85, 1]"] ;
96 -> 97 ;
98 [label="X[1293] <= 0.5\ngini = 0.024\nsamples = 81\nvalue = [0, 80, 1]"] ;
97 -> 98 ;
99 [label="X[266] <= 0.5\ngini = 0.026\nsamples = 77\nvalue = [0, 76, 1]"] ;
98 -> 99 ;
100 [label="X[1103] <= 0.5\ngini = 0.027\nsamples = 73\nvalue = [0, 72, 1]"] ;
99 -> 100 ;
101 [label="X[494] <= 0.5\ngini = 0.029\nsamples = 69\nvalue = [0, 68, 1]"] ;
100 -> 101 ;
102 [label="X[39] <= 0.5\ngini = 0.03\nsamples = 65\nvalue = [0, 64, 1]"] ;
101 -> 102 ;
103 [label="X[349] <= 0.5\ngini = 0.032\nsamples = 62\nvalue = [0, 61, 1]"] ;
102 -> 103 ;
104 [label="X[1211] <= 0.5\ngini = 0.033\nsamples = 59\nvalue = [0, 58, 1]"] ;
103 -> 104 ;
105 [label="X[1352] <= 0.5\ngini = 0.035\nsamples = 56\nvalue = [0, 55, 1]"] ;
104 -> 105 ;
106 [label="X[1116] <= 0.5\ngini = 0.037\nsamples = 53\nvalue = [0, 52, 1]"] ;
105 -> 106 ;
107 [label="X[185] <= 0.5\ngini = 0.039\nsamples = 50\nvalue = [0, 49, 1]"] ;
106 -> 107 ;
108 [label="X[174] <= 0.5\ngini = 0.041\nsamples = 48\nvalue = [0, 47, 1]"] ;
107 -> 108 ;
109 [label="X[1166] <= 0.5\ngini = 0.043\nsamples = 46\nvalue = [0, 45, 1]"] ;
108 -> 109 ;
110 [label="X[115] <= 0.5\ngini = 0.044\nsamples = 44\nvalue = [0, 43, 1]"] ;
109 -> 110 ;
111 [label="X[18] <= 0.5\ngini = 0.046\nsamples = 42\nvalue = [0, 41, 1]"] ;
110 -> 111 ;
112 [label="X[164] <= 0.5\ngini = 0.049\nsamples = 40\nvalue = [0, 39, 1]"] ;
111 -> 112 ;
113 [label="X[151] <= 0.5\ngini = 0.051\nsamples = 38\nvalue = [0, 37, 1]"] ;
112 -> 113 ;
114 [label="X[1144] <= 0.5\ngini = 0.054\nsamples = 36\nvalue = [0, 35, 1]"] ;
113 -> 114 ;
115 [label="X[367] <= 0.5\ngini = 0.057\nsamples = 34\nvalue = [0, 33, 1]"] ;
114 -> 115 ;
116 [label="X[856] <= 0.5\ngini = 0.061\nsamples = 32\nvalue = [0, 31, 1]"] ;
115 -> 116 ;
117 [label="X[354] <= 0.5\ngini = 0.064\nsamples = 30\nvalue = [0, 29, 1]"] ;
116 -> 117 ;
118 [label="X[774] <= 0.5\ngini = 0.069\nsamples = 28\nvalue = [0, 27, 1]"] ;
117 -> 118 ;
119 [label="X[345] <= 0.5\ngini = 0.074\nsamples = 26\nvalue = [0, 25, 1]"] ;
118 -> 119 ;
120 [label="X[1236] <= 0.5\ngini = 0.08\nsamples = 24\nvalue = [0, 23, 1]"] ;
119 -> 120 ;
121 [label="X[1035] <= 0.5\ngini = 0.087\nsamples = 22\nvalue = [0, 21, 1]"] ;
120 -> 121 ;
122 [label="X[731] <= 0.5\ngini = 0.095\nsamples = 20\nvalue = [0, 19, 1]"] ;
121 -> 122 ;
123 [label="X[1457] <= 0.5\ngini = 0.105\nsamples = 18\nvalue = [0, 17, 1]"] ;
122 -> 123 ;
124 [label="X[896] <= 0.5\ngini = 0.111\nsamples = 17\nvalue = [0, 16, 1]"] ;
123 -> 124 ;
125 [label="X[1184] <= 0.5\ngini = 0.117\nsamples = 16\nvalue = [0, 15, 1]"] ;
124 -> 125 ;
126 [label="X[27] <= 0.5\ngini = 0.124\nsamples = 15\nvalue = [0, 14, 1]"] ;
125 -> 126 ;
127 [label="X[116] <= 0.5\ngini = 0.133\nsamples = 14\nvalue = [0, 13, 1]"] ;
126 -> 127 ;
128 [label="X[568] <= 0.5\ngini = 0.142\nsamples = 13\nvalue = [0, 12, 1]"] ;
127 -> 128 ;
129 [label="X[871] <= 0.5\ngini = 0.153\nsamples = 12\nvalue = [0, 11, 1]"] ;
128 -> 129 ;
130 [label="X[1032] <= 0.5\ngini = 0.165\nsamples = 11\nvalue = [0, 10, 1]"] ;
129 -> 130 ;
131 [label="X[95] <= 0.5\ngini = 0.18\nsamples = 10\nvalue = [0, 9, 1]"] ;
130 -> 131 ;
132 [label="X[1378] <= 0.5\ngini = 0.198\nsamples = 9\nvalue = [0, 8, 1]"] ;
131 -> 132 ;
133 [label="X[647] <= 0.5\ngini = 0.219\nsamples = 8\nvalue = [0, 7, 1]"] ;
132 -> 133 ;
134 [label="X[1336] <= 0.5\ngini = 0.245\nsamples = 7\nvalue = [0, 6, 1]"] ;
133 -> 134 ;
135 [label="X[667] <= 0.5\ngini = 0.278\nsamples = 6\nvalue = [0, 5, 1]"] ;
134 -> 135 ;
136 [label="gini = 0.32\nsamples = 5\nvalue = [0, 4, 1]"] ;
135 -> 136 ;
137 [label="gini = 0.0\nsamples = 1\nvalue = [0, 1, 0]"] ;
135 -> 137 ;
138 [label="gini = 0.0\nsamples = 1\nvalue = [0, 1, 0]"] ;
134 -> 138 ;
139 [label="gini = 0.0\nsamples = 1\nvalue = [0, 1, 0]"] ;
133 -> 139 ;
140 [label="gini = 0.0\nsamples = 1\nvalue = [0, 1, 0]"] ;
132 -> 140 ;
141 [label="gini = 0.0\nsamples = 1\nvalue = [0, 1, 0]"] ;
131 -> 141 ;
142 [label="gini = 0.0\nsamples = 1\nvalue = [0, 1, 0]"] ;
130 -> 142 ;
143 [label="gini = 0.0\nsamples = 1\nvalue = [0, 1, 0]"] ;
129 -> 143 ;
144 [label="gini = 0.0\nsamples = 1\nvalue = [0, 1, 0]"] ;
128 -> 144 ;
145 [label="gini = 0.0\nsamples = 1\nvalue = [0, 1, 0]"] ;
127 -> 145 ;
146 [label="gini = 0.0\nsamples = 1\nvalue = [0, 1, 0]"] ;
126 -> 146 ;
147 [label="gini = 0.0\nsamples = 1\nvalue = [0, 1, 0]"] ;
125 -> 147 ;
148 [label="gini = 0.0\nsamples = 1\nvalue = [0, 1, 0]"] ;
124 -> 148 ;
149 [label="gini = 0.0\nsamples = 1\nvalue = [0, 1, 0]"] ;
123 -> 149 ;
150 [label="gini = 0.0\nsamples = 2\nvalue = [0, 2, 0]"] ;
122 -> 150 ;
151 [label="gini = 0.0\nsamples = 2\nvalue = [0, 2, 0]"] ;
121 -> 151 ;
152 [label="gini = 0.0\nsamples = 2\nvalue = [0, 2, 0]"] ;
120 -> 152 ;
153 [label="gini = 0.0\nsamples = 2\nvalue = [0, 2, 0]"] ;
119 -> 153 ;
154 [label="gini = 0.0\nsamples = 2\nvalue = [0, 2, 0]"] ;
118 -> 154 ;
155 [label="gini = 0.0\nsamples = 2\nvalue = [0, 2, 0]"] ;
117 -> 155 ;
156 [label="gini = 0.0\nsamples = 2\nvalue = [0, 2, 0]"] ;
116 -> 156 ;
157 [label="gini = 0.0\nsamples = 2\nvalue = [0, 2, 0]"] ;
115 -> 157 ;
158 [label="gini = 0.0\nsamples = 2\nvalue = [0, 2, 0]"] ;
114 -> 158 ;
159 [label="gini = 0.0\nsamples = 2\nvalue = [0, 2, 0]"] ;
113 -> 159 ;
160 [label="gini = 0.0\nsamples = 2\nvalue = [0, 2, 0]"] ;
112 -> 160 ;
161 [label="gini = 0.0\nsamples = 2\nvalue = [0, 2, 0]"] ;
111 -> 161 ;
162 [label="gini = 0.0\nsamples = 2\nvalue = [0, 2, 0]"] ;
110 -> 162 ;
163 [label="gini = 0.0\nsamples = 2\nvalue = [0, 2, 0]"] ;
109 -> 163 ;
164 [label="gini = 0.0\nsamples = 2\nvalue = [0, 2, 0]"] ;
108 -> 164 ;
165 [label="gini = 0.0\nsamples = 2\nvalue = [0, 2, 0]"] ;
107 -> 165 ;
166 [label="gini = 0.0\nsamples = 3\nvalue = [0, 3, 0]"] ;
106 -> 166 ;
167 [label="gini = 0.0\nsamples = 3\nvalue = [0, 3, 0]"] ;
105 -> 167 ;
168 [label="gini = 0.0\nsamples = 3\nvalue = [0, 3, 0]"] ;
104 -> 168 ;
169 [label="gini = 0.0\nsamples = 3\nvalue = [0, 3, 0]"] ;
103 -> 169 ;
170 [label="gini = 0.0\nsamples = 3\nvalue = [0, 3, 0]"] ;
102 -> 170 ;
171 [label="gini = 0.0\nsamples = 4\nvalue = [0, 4, 0]"] ;
101 -> 171 ;
172 [label="gini = 0.0\nsamples = 4\nvalue = [0, 4, 0]"] ;
100 -> 172 ;
173 [label="gini = 0.0\nsamples = 4\nvalue = [0, 4, 0]"] ;
99 -> 173 ;
174 [label="gini = 0.0\nsamples = 4\nvalue = [0, 4, 0]"] ;
98 -> 174 ;
175 [label="gini = 0.0\nsamples = 5\nvalue = [0, 5, 0]"] ;
97 -> 175 ;
176 [label="gini = 0.0\nsamples = 5\nvalue = [0, 5, 0]"] ;
96 -> 176 ;
177 [label="gini = 0.0\nsamples = 6\nvalue = [0, 6, 0]"] ;
95 -> 177 ;
178 [label="gini = 0.0\nsamples = 6\nvalue = [0, 6, 0]"] ;
94 -> 178 ;
179 [label="gini = 0.0\nsamples = 6\nvalue = [0, 6, 0]"] ;
93 -> 179 ;
180 [label="gini = 0.0\nsamples = 6\nvalue = [0, 6, 0]"] ;
92 -> 180 ;
181 [label="gini = 0.0\nsamples = 7\nvalue = [0, 7, 0]"] ;
91 -> 181 ;
182 [label="gini = 0.0\nsamples = 7\nvalue = [0, 7, 0]"] ;
90 -> 182 ;
183 [label="gini = 0.0\nsamples = 7\nvalue = [0, 7, 0]"] ;
89 -> 183 ;
184 [label="gini = 0.0\nsamples = 8\nvalue = [0, 8, 0]"] ;
88 -> 184 ;
185 [label="gini = 0.0\nsamples = 9\nvalue = [0, 9, 0]"] ;
87 -> 185 ;
186 [label="gini = 0.0\nsamples = 10\nvalue = [0, 10, 0]"] ;
86 -> 186 ;
187 [label="gini = 0.0\nsamples = 10\nvalue = [0, 10, 0]"] ;
85 -> 187 ;
188 [label="gini = 0.0\nsamples = 10\nvalue = [0, 10, 0]"] ;
84 -> 188 ;
189 [label="gini = 0.0\nsamples = 11\nvalue = [0, 11, 0]"] ;
83 -> 189 ;
190 [label="gini = 0.0\nsamples = 12\nvalue = [0, 12, 0]"] ;
82 -> 190 ;
191 [label="gini = 0.0\nsamples = 12\nvalue = [0, 12, 0]"] ;
81 -> 191 ;
192 [label="gini = 0.0\nsamples = 13\nvalue = [0, 13, 0]"] ;
80 -> 192 ;
193 [label="gini = 0.0\nsamples = 17\nvalue = [0, 17, 0]"] ;
79 -> 193 ;
194 [label="gini = 0.0\nsamples = 20\nvalue = [0, 20, 0]"] ;
78 -> 194 ;
195 [label="gini = 0.0\nsamples = 31\nvalue = [0, 31, 0]"] ;
77 -> 195 ;
196 [label="gini = 0.0\nsamples = 31\nvalue = [0, 31, 0]"] ;
76 -> 196 ;
197 [label="gini = 0.0\nsamples = 46\nvalue = [0, 46, 0]"] ;
75 -> 197 ;
198 [label="X[1220] <= 0.5\ngini = 0.117\nsamples = 32\nvalue = [0, 30, 2]"] ;
74 -> 198 ;
199 [label="X[91] <= 0.5\ngini = 0.062\nsamples = 31\nvalue = [0, 30, 1]"] ;
198 -> 199 ;
200 [label="X[204] <= 0.5\ngini = 0.08\nsamples = 24\nvalue = [0, 23, 1]"] ;
199 -> 200 ;
201 [label="X[228] <= 0.5\ngini = 0.105\nsamples = 18\nvalue = [0, 17, 1]"] ;
200 -> 201 ;
202 [label="X[605] <= 0.5\ngini = 0.142\nsamples = 13\nvalue = [0, 12, 1]"] ;
201 -> 202 ;
203 [label="X[1455] <= 0.5\ngini = 0.198\nsamples = 9\nvalue = [0, 8, 1]"] ;
202 -> 203 ;
204 [label="X[407] <= 0.5\ngini = 0.245\nsamples = 7\nvalue = [0, 6, 1]"] ;
203 -> 204 ;
205 [label="X[301] <= 0.5\ngini = 0.32\nsamples = 5\nvalue = [0, 4, 1]"] ;
204 -> 205 ;
206 [label="X[286] <= 0.5\ngini = 0.375\nsamples = 4\nvalue = [0, 3, 1]"] ;
205 -> 206 ;
207 [label="gini = 0.444\nsamples = 3\nvalue = [0, 2, 1]"] ;
206 -> 207 ;
208 [label="gini = 0.0\nsamples = 1\nvalue = [0, 1, 0]"] ;
206 -> 208 ;
209 [label="gini = 0.0\nsamples = 1\nvalue = [0, 1, 0]"] ;
205 -> 209 ;
210 [label="gini = 0.0\nsamples = 2\nvalue = [0, 2, 0]"] ;
204 -> 210 ;
211 [label="gini = 0.0\nsamples = 2\nvalue = [0, 2, 0]"] ;
203 -> 211 ;
212 [label="gini = 0.0\nsamples = 4\nvalue = [0, 4, 0]"] ;
202 -> 212 ;
213 [label="gini = 0.0\nsamples = 5\nvalue = [0, 5, 0]"] ;
201 -> 213 ;
214 [label="gini = 0.0\nsamples = 6\nvalue = [0, 6, 0]"] ;
200 -> 214 ;
215 [label="gini = 0.0\nsamples = 7\nvalue = [0, 7, 0]"] ;
199 -> 215 ;
216 [label="gini = 0.0\nsamples = 1\nvalue = [0, 0, 1]"] ;
198 -> 216 ;
217 [label="X[792] <= 0.5\ngini = 0.245\nsamples = 7\nvalue = [0, 6, 1]"] ;
73 -> 217 ;
218 [label="gini = 0.0\nsamples = 6\nvalue = [0, 6, 0]"] ;
217 -> 218 ;
219 [label="gini = 0.0\nsamples = 1\nvalue = [0, 0, 1]"] ;
217 -> 219 ;
220 [label="X[770] <= 0.5\ngini = 0.198\nsamples = 9\nvalue = [0, 8, 1]"] ;
72 -> 220 ;
221 [label="X[150] <= 0.5\ngini = 0.32\nsamples = 5\nvalue = [0, 4, 1]"] ;
220 -> 221 ;
222 [label="X[911] <= 0.5\ngini = 0.5\nsamples = 2\nvalue = [0, 1, 1]"] ;
221 -> 222 ;
223 [label="gini = 0.0\nsamples = 1\nvalue = [0, 0, 1]"] ;
222 -> 223 ;
224 [label="gini = 0.0\nsamples = 1\nvalue = [0, 1, 0]"] ;
222 -> 224 ;
225 [label="gini = 0.0\nsamples = 3\nvalue = [0, 3, 0]"] ;
221 -> 225 ;
226 [label="gini = 0.0\nsamples = 4\nvalue = [0, 4, 0]"] ;
220 -> 226 ;
227 [label="X[765] <= 0.5\ngini = 0.278\nsamples = 6\nvalue = [0, 5, 1]"] ;
71 -> 227 ;
228 [label="gini = 0.0\nsamples = 5\nvalue = [0, 5, 0]"] ;
227 -> 228 ;
229 [label="gini = 0.0\nsamples = 1\nvalue = [0, 0, 1]"] ;
227 -> 229 ;
230 [label="X[770] <= 0.5\ngini = 0.32\nsamples = 5\nvalue = [0, 4, 1]"] ;
70 -> 230 ;
231 [label="gini = 0.0\nsamples = 1\nvalue = [0, 0, 1]"] ;
230 -> 231 ;
232 [label="gini = 0.0\nsamples = 4\nvalue = [0, 4, 0]"] ;
230 -> 232 ;
233 [label="X[1338] <= 0.5\ngini = 0.32\nsamples = 5\nvalue = [0, 4, 1]"] ;
69 -> 233 ;
234 [label="gini = 0.0\nsamples = 4\nvalue = [0, 4, 0]"] ;
233 -> 234 ;
235 [label="gini = 0.0\nsamples = 1\nvalue = [0, 0, 1]"] ;
233 -> 235 ;
236 [label="X[125] <= 0.5\ngini = 0.278\nsamples = 12\nvalue = [0, 10, 2]"] ;
68 -> 236 ;
237 [label="X[1290] <= 0.5\ngini = 0.165\nsamples = 11\nvalue = [0, 10, 1]"] ;
236 -> 237 ;
238 [label="gini = 0.0\nsamples = 10\nvalue = [0, 10, 0]"] ;
237 -> 238 ;
239 [label="gini = 0.0\nsamples = 1\nvalue = [0, 0, 1]"] ;
237 -> 239 ;
240 [label="gini = 0.0\nsamples = 1\nvalue = [0, 0, 1]"] ;
236 -> 240 ;
241 [label="X[995] <= 0.5\ngini = 0.444\nsamples = 3\nvalue = [0, 2, 1]"] ;
67 -> 241 ;
242 [label="gini = 0.0\nsamples = 1\nvalue = [0, 0, 1]"] ;
241 -> 242 ;
243 [label="gini = 0.0\nsamples = 2\nvalue = [0, 2, 0]"] ;
241 -> 243 ;
244 [label="X[597] <= 0.5\ngini = 0.5\nsamples = 2\nvalue = [0, 1, 1]"] ;
66 -> 244 ;
245 [label="gini = 0.0\nsamples = 1\nvalue = [0, 1, 0]"] ;
244 -> 245 ;
246 [label="gini = 0.0\nsamples = 1\nvalue = [0, 0, 1]"] ;
244 -> 246 ;
247 [label="X[1322] <= 0.5\ngini = 0.5\nsamples = 2\nvalue = [0, 1, 1]"] ;
65 -> 247 ;
248 [label="gini = 0.0\nsamples = 1\nvalue = [0, 1, 0]"] ;
247 -> 248 ;
249 [label="gini = 0.0\nsamples = 1\nvalue = [0, 0, 1]"] ;
247 -> 249 ;
250 [label="X[596] <= 1.0\ngini = 0.5\nsamples = 2\nvalue = [0, 1, 1]"] ;
64 -> 250 ;
251 [label="gini = 0.0\nsamples = 1\nvalue = [0, 0, 1]"] ;
250 -> 251 ;
252 [label="gini = 0.0\nsamples = 1\nvalue = [0, 1, 0]"] ;
250 -> 252 ;
253 [label="gini = 0.0\nsamples = 1\nvalue = [0, 0, 1]"] ;
63 -> 253 ;
254 [label="X[674] <= 0.5\ngini = 0.287\nsamples = 23\nvalue = [0, 19, 4]"] ;
62 -> 254 ;
255 [label="X[129] <= 0.5\ngini = 0.236\nsamples = 22\nvalue = [0, 19, 3]"] ;
254 -> 255 ;
256 [label="X[737] <= 0.5\ngini = 0.291\nsamples = 17\nvalue = [0, 14, 3]"] ;
255 -> 256 ;
257 [label="X[745] <= 0.5\ngini = 0.355\nsamples = 13\nvalue = [0, 10, 3]"] ;
256 -> 257 ;
258 [label="X[1259] <= 0.5\ngini = 0.42\nsamples = 10\nvalue = [0, 7, 3]"] ;
257 -> 258 ;
259 [label="X[1273] <= 0.5\ngini = 0.49\nsamples = 7\nvalue = [0, 4, 3]"] ;
258 -> 259 ;
260 [label="X[677] <= 0.5\ngini = 0.48\nsamples = 5\nvalue = [0, 2, 3]"] ;
259 -> 260 ;
261 [label="gini = 0.375\nsamples = 4\nvalue = [0, 1, 3]"] ;
260 -> 261 ;
262 [label="gini = 0.0\nsamples = 1\nvalue = [0, 1, 0]"] ;
260 -> 262 ;
263 [label="gini = 0.0\nsamples = 2\nvalue = [0, 2, 0]"] ;
259 -> 263 ;
264 [label="gini = 0.0\nsamples = 3\nvalue = [0, 3, 0]"] ;
258 -> 264 ;
265 [label="gini = 0.0\nsamples = 3\nvalue = [0, 3, 0]"] ;
257 -> 265 ;
266 [label="gini = 0.0\nsamples = 4\nvalue = [0, 4, 0]"] ;
256 -> 266 ;
267 [label="gini = 0.0\nsamples = 5\nvalue = [0, 5, 0]"] ;
255 -> 267 ;
268 [label="gini = 0.0\nsamples = 1\nvalue = [0, 0, 1]"] ;
254 -> 268 ;
269 [label="gini = 0.0\nsamples = 1\nvalue = [0, 0, 1]"] ;
61 -> 269 ;
270 [label="gini = 0.0\nsamples = 1\nvalue = [0, 0, 1]"] ;
60 -> 270 ;
271 [label="gini = 0.0\nsamples = 1\nvalue = [0, 0, 1]"] ;
59 -> 271 ;
272 [label="gini = 0.0\nsamples = 1\nvalue = [0, 0, 1]"] ;
58 -> 272 ;
273 [label="gini = 0.0\nsamples = 1\nvalue = [0, 0, 1]"] ;
57 -> 273 ;
274 [label="gini = 0.0\nsamples = 1\nvalue = [0, 0, 1]"] ;
56 -> 274 ;
275 [label="gini = 0.0\nsamples = 1\nvalue = [0, 0, 1]"] ;
55 -> 275 ;
276 [label="gini = 0.0\nsamples = 1\nvalue = [0, 0, 1]"] ;
54 -> 276 ;
277 [label="gini = 0.0\nsamples = 1\nvalue = [0, 0, 1]"] ;
53 -> 277 ;
278 [label="gini = 0.0\nsamples = 1\nvalue = [0, 0, 1]"] ;
52 -> 278 ;
279 [label="gini = 0.0\nsamples = 1\nvalue = [0, 0, 1]"] ;
51 -> 279 ;
280 [label="gini = 0.0\nsamples = 1\nvalue = [0, 0, 1]"] ;
50 -> 280 ;
281 [label="gini = 0.0\nsamples = 1\nvalue = [0, 0, 1]"] ;
49 -> 281 ;
282 [label="gini = 0.0\nsamples = 1\nvalue = [0, 0, 1]"] ;
48 -> 282 ;
283 [label="gini = 0.0\nsamples = 1\nvalue = [0, 0, 1]"] ;
47 -> 283 ;
284 [label="gini = 0.0\nsamples = 1\nvalue = [0, 0, 1]"] ;
46 -> 284 ;
285 [label="gini = 0.0\nsamples = 1\nvalue = [0, 0, 1]"] ;
45 -> 285 ;
286 [label="gini = 0.0\nsamples = 1\nvalue = [0, 0, 1]"] ;
44 -> 286 ;
287 [label="gini = 0.0\nsamples = 1\nvalue = [0, 0, 1]"] ;
43 -> 287 ;
288 [label="gini = 0.0\nsamples = 1\nvalue = [0, 0, 1]"] ;
42 -> 288 ;
289 [label="gini = 0.0\nsamples = 1\nvalue = [0, 0, 1]"] ;
41 -> 289 ;
290 [label="gini = 0.0\nsamples = 1\nvalue = [0, 0, 1]"] ;
40 -> 290 ;
291 [label="gini = 0.0\nsamples = 1\nvalue = [0, 0, 1]"] ;
39 -> 291 ;
292 [label="gini = 0.0\nsamples = 1\nvalue = [0, 0, 1]"] ;
38 -> 292 ;
293 [label="gini = 0.0\nsamples = 1\nvalue = [0, 0, 1]"] ;
37 -> 293 ;
294 [label="gini = 0.0\nsamples = 1\nvalue = [0, 0, 1]"] ;
36 -> 294 ;
295 [label="gini = 0.0\nsamples = 1\nvalue = [0, 0, 1]"] ;
35 -> 295 ;
296 [label="gini = 0.0\nsamples = 1\nvalue = [0, 0, 1]"] ;
34 -> 296 ;
297 [label="gini = 0.0\nsamples = 1\nvalue = [0, 0, 1]"] ;
33 -> 297 ;
298 [label="gini = 0.0\nsamples = 1\nvalue = [0, 0, 1]"] ;
32 -> 298 ;
299 [label="X[1322] <= 0.5\ngini = 0.64\nsamples = 5\nvalue = [1, 2, 2]"] ;
31 -> 299 ;
300 [label="gini = 0.0\nsamples = 2\nvalue = [0, 0, 2]"] ;
299 -> 300 ;
301 [label="X[1441] <= 0.5\ngini = 0.444\nsamples = 3\nvalue = [1, 2, 0]"] ;
299 -> 301 ;
302 [label="gini = 0.0\nsamples = 2\nvalue = [0, 2, 0]"] ;
301 -> 302 ;
303 [label="gini = 0.0\nsamples = 1\nvalue = [1, 0, 0]"] ;
301 -> 303 ;
304 [label="X[301] <= 0.5\ngini = 0.5\nsamples = 6\nvalue = [0, 3, 3]"] ;
30 -> 304 ;
305 [label="gini = 0.0\nsamples = 3\nvalue = [0, 0, 3]"] ;
304 -> 305 ;
306 [label="gini = 0.0\nsamples = 3\nvalue = [0, 3, 0]"] ;
304 -> 306 ;
307 [label="X[443] <= 0.5\ngini = 0.444\nsamples = 3\nvalue = [0, 1, 2]"] ;
29 -> 307 ;
308 [label="gini = 0.0\nsamples = 2\nvalue = [0, 0, 2]"] ;
307 -> 308 ;
309 [label="gini = 0.0\nsamples = 1\nvalue = [0, 1, 0]"] ;
307 -> 309 ;
310 [label="X[42] <= 0.5\ngini = 0.48\nsamples = 5\nvalue = [0, 2, 3]"] ;
28 -> 310 ;
311 [label="gini = 0.0\nsamples = 3\nvalue = [0, 0, 3]"] ;
310 -> 311 ;
312 [label="gini = 0.0\nsamples = 2\nvalue = [0, 2, 0]"] ;
310 -> 312 ;
313 [label="X[596] <= 0.5\ngini = 0.497\nsamples = 13\nvalue = [0, 7, 6]"] ;
27 -> 313 ;
314 [label="X[646] <= 0.5\ngini = 0.463\nsamples = 11\nvalue = [0, 7, 4]"] ;
313 -> 314 ;
315 [label="X[1432] <= 0.5\ngini = 0.42\nsamples = 10\nvalue = [0, 7, 3]"] ;
314 -> 315 ;
316 [label="X[968] <= 0.5\ngini = 0.346\nsamples = 9\nvalue = [0, 7, 2]"] ;
315 -> 316 ;
317 [label="X[613] <= 0.5\ngini = 0.219\nsamples = 8\nvalue = [0, 7, 1]"] ;
316 -> 317 ;
318 [label="gini = 0.0\nsamples = 7\nvalue = [0, 7, 0]"] ;
317 -> 318 ;
319 [label="gini = 0.0\nsamples = 1\nvalue = [0, 0, 1]"] ;
317 -> 319 ;
320 [label="gini = 0.0\nsamples = 1\nvalue = [0, 0, 1]"] ;
316 -> 320 ;
321 [label="gini = 0.0\nsamples = 1\nvalue = [0, 0, 1]"] ;
315 -> 321 ;
322 [label="gini = 0.0\nsamples = 1\nvalue = [0, 0, 1]"] ;
314 -> 322 ;
323 [label="gini = 0.0\nsamples = 2\nvalue = [0, 0, 2]"] ;
313 -> 323 ;
324 [label="gini = 0.0\nsamples = 2\nvalue = [0, 0, 2]"] ;
26 -> 324 ;
325 [label="gini = 0.0\nsamples = 2\nvalue = [0, 0, 2]"] ;
25 -> 325 ;
326 [label="gini = 0.0\nsamples = 2\nvalue = [0, 0, 2]"] ;
24 -> 326 ;
327 [label="gini = 0.0\nsamples = 2\nvalue = [0, 0, 2]"] ;
23 -> 327 ;
328 [label="gini = 0.0\nsamples = 2\nvalue = [0, 0, 2]"] ;
22 -> 328 ;
329 [label="X[37] <= 0.5\ngini = 0.375\nsamples = 4\nvalue = [0, 1, 3]"] ;
21 -> 329 ;
330 [label="gini = 0.0\nsamples = 3\nvalue = [0, 0, 3]"] ;
329 -> 330 ;
331 [label="gini = 0.0\nsamples = 1\nvalue = [0, 1, 0]"] ;
329 -> 331 ;
332 [label="gini = 0.0\nsamples = 3\nvalue = [0, 0, 3]"] ;
20 -> 332 ;
333 [label="X[301] <= 0.5\ngini = 0.5\nsamples = 14\nvalue = [7, 7, 0]"] ;
19 -> 333 ;
334 [label="X[686] <= 0.5\ngini = 0.42\nsamples = 10\nvalue = [3, 7, 0]"] ;
333 -> 334 ;
335 [label="gini = 0.0\nsamples = 7\nvalue = [0, 7, 0]"] ;
334 -> 335 ;
336 [label="gini = 0.0\nsamples = 3\nvalue = [3, 0, 0]"] ;
334 -> 336 ;
337 [label="gini = 0.0\nsamples = 4\nvalue = [4, 0, 0]"] ;
333 -> 337 ;
338 [label="gini = 0.0\nsamples = 4\nvalue = [0, 0, 4]"] ;
18 -> 338 ;
339 [label="gini = 0.0\nsamples = 4\nvalue = [4, 0, 0]"] ;
17 -> 339 ;
340 [label="gini = 0.0\nsamples = 4\nvalue = [4, 0, 0]"] ;
16 -> 340 ;
341 [label="gini = 0.0\nsamples = 4\nvalue = [4, 0, 0]"] ;
15 -> 341 ;
342 [label="X[450] <= 0.5\ngini = 0.444\nsamples = 6\nvalue = [4, 0, 2]"] ;
14 -> 342 ;
343 [label="gini = 0.0\nsamples = 2\nvalue = [0, 0, 2]"] ;
342 -> 343 ;
344 [label="gini = 0.0\nsamples = 4\nvalue = [4, 0, 0]"] ;
342 -> 344 ;
345 [label="X[533] <= 0.5\ngini = 0.346\nsamples = 9\nvalue = [0, 2, 7]"] ;
13 -> 345 ;
346 [label="X[668] <= 0.5\ngini = 0.219\nsamples = 8\nvalue = [0, 1, 7]"] ;
345 -> 346 ;
347 [label="gini = 0.0\nsamples = 7\nvalue = [0, 0, 7]"] ;
346 -> 347 ;
348 [label="gini = 0.0\nsamples = 1\nvalue = [0, 1, 0]"] ;
346 -> 348 ;
349 [label="gini = 0.0\nsamples = 1\nvalue = [0, 1, 0]"] ;
345 -> 349 ;
350 [label="X[391] <= 0.5\ngini = 0.493\nsamples = 25\nvalue = [0, 11, 14]"] ;
12 -> 350 ;
351 [label="X[838] <= 0.5\ngini = 0.444\nsamples = 21\nvalue = [0, 7, 14]"] ;
350 -> 351 ;
352 [label="X[691] <= 0.5\ngini = 0.388\nsamples = 19\nvalue = [0, 5, 14]"] ;
351 -> 352 ;
353 [label="X[942] <= 0.5\ngini = 0.291\nsamples = 17\nvalue = [0, 3, 14]"] ;
352 -> 353 ;
354 [label="X[894] <= 0.5\ngini = 0.219\nsamples = 16\nvalue = [0, 2, 14]"] ;
353 -> 354 ;
355 [label="X[129] <= 0.5\ngini = 0.124\nsamples = 15\nvalue = [0, 1, 14]"] ;
354 -> 355 ;
356 [label="gini = 0.0\nsamples = 14\nvalue = [0, 0, 14]"] ;
355 -> 356 ;
357 [label="gini = 0.0\nsamples = 1\nvalue = [0, 1, 0]"] ;
355 -> 357 ;
358 [label="gini = 0.0\nsamples = 1\nvalue = [0, 1, 0]"] ;
354 -> 358 ;
359 [label="gini = 0.0\nsamples = 1\nvalue = [0, 1, 0]"] ;
353 -> 359 ;
360 [label="gini = 0.0\nsamples = 2\nvalue = [0, 2, 0]"] ;
352 -> 360 ;
361 [label="gini = 0.0\nsamples = 2\nvalue = [0, 2, 0]"] ;
351 -> 361 ;
362 [label="gini = 0.0\nsamples = 4\nvalue = [0, 4, 0]"] ;
350 -> 362 ;
363 [label="gini = 0.0\nsamples = 5\nvalue = [5, 0, 0]"] ;
11 -> 363 ;
364 [label="gini = 0.0\nsamples = 5\nvalue = [5, 0, 0]"] ;
10 -> 364 ;
365 [label="gini = 0.0\nsamples = 5\nvalue = [5, 0, 0]"] ;
9 -> 365 ;
366 [label="gini = 0.0\nsamples = 6\nvalue = [6, 0, 0]"] ;
8 -> 366 ;
367 [label="gini = 0.0\nsamples = 7\nvalue = [7, 0, 0]"] ;
7 -> 367 ;
368 [label="X[912] <= 0.5\ngini = 0.627\nsamples = 43\nvalue = [8, 15, 20]"] ;
6 -> 368 ;
369 [label="X[771] <= 0.5\ngini = 0.561\nsamples = 38\nvalue = [3, 15, 20]"] ;
368 -> 369 ;
370 [label="X[1117] <= 0.5\ngini = 0.49\nsamples = 35\nvalue = [0, 15, 20]"] ;
369 -> 370 ;
371 [label="X[74] <= 0.5\ngini = 0.458\nsamples = 31\nvalue = [0, 11, 20]"] ;
370 -> 371 ;
372 [label="X[208] <= 0.5\ngini = 0.408\nsamples = 28\nvalue = [0, 8, 20]"] ;
371 -> 372 ;
373 [label="X[15] <= 0.5\ngini = 0.287\nsamples = 23\nvalue = [0, 4, 19]"] ;
372 -> 373 ;
374 [label="X[807] <= 0.5\ngini = 0.172\nsamples = 21\nvalue = [0, 2, 19]"] ;
373 -> 374 ;
375 [label="gini = 0.0\nsamples = 19\nvalue = [0, 0, 19]"] ;
374 -> 375 ;
376 [label="gini = 0.0\nsamples = 2\nvalue = [0, 2, 0]"] ;
374 -> 376 ;
377 [label="gini = 0.0\nsamples = 2\nvalue = [0, 2, 0]"] ;
373 -> 377 ;
378 [label="X[373] <= 0.5\ngini = 0.32\nsamples = 5\nvalue = [0, 4, 1]"] ;
372 -> 378 ;
379 [label="gini = 0.0\nsamples = 4\nvalue = [0, 4, 0]"] ;
378 -> 379 ;
380 [label="gini = 0.0\nsamples = 1\nvalue = [0, 0, 1]"] ;
378 -> 380 ;
381 [label="gini = 0.0\nsamples = 3\nvalue = [0, 3, 0]"] ;
371 -> 381 ;
382 [label="gini = 0.0\nsamples = 4\nvalue = [0, 4, 0]"] ;
370 -> 382 ;
383 [label="gini = 0.0\nsamples = 3\nvalue = [3, 0, 0]"] ;
369 -> 383 ;
384 [label="gini = 0.0\nsamples = 5\nvalue = [5, 0, 0]"] ;
368 -> 384 ;
385 [label="gini = 0.0\nsamples = 8\nvalue = [8, 0, 0]"] ;
5 -> 385 ;
386 [label="X[522] <= 0.5\ngini = 0.525\nsamples = 22\nvalue = [14, 3, 5]"] ;
4 -> 386 ;
387 [label="X[262] <= 0.5\ngini = 0.346\nsamples = 18\nvalue = [14, 0, 4]"] ;
386 -> 387 ;
388 [label="X[989] <= 0.5\ngini = 0.291\nsamples = 17\nvalue = [14, 0, 3]"] ;
387 -> 388 ;
389 [label="X[11] <= 0.5\ngini = 0.219\nsamples = 16\nvalue = [14, 0, 2]"] ;
388 -> 389 ;
390 [label="X[160] <= 0.5\ngini = 0.124\nsamples = 15\nvalue = [14, 0, 1]"] ;
389 -> 390 ;
391 [label="gini = 0.0\nsamples = 14\nvalue = [14, 0, 0]"] ;
390 -> 391 ;
392 [label="gini = 0.0\nsamples = 1\nvalue = [0, 0, 1]"] ;
390 -> 392 ;
393 [label="gini = 0.0\nsamples = 1\nvalue = [0, 0, 1]"] ;
389 -> 393 ;
394 [label="gini = 0.0\nsamples = 1\nvalue = [0, 0, 1]"] ;
388 -> 394 ;
395 [label="gini = 0.0\nsamples = 1\nvalue = [0, 0, 1]"] ;
387 -> 395 ;
396 [label="X[55] <= 0.5\ngini = 0.375\nsamples = 4\nvalue = [0, 3, 1]"] ;
386 -> 396 ;
397 [label="gini = 0.0\nsamples = 3\nvalue = [0, 3, 0]"] ;
396 -> 397 ;
398 [label="gini = 0.0\nsamples = 1\nvalue = [0, 0, 1]"] ;
396 -> 398 ;
399 [label="X[1103] <= 0.5\ngini = 0.32\nsamples = 16\nvalue = [13, 1, 2]"] ;
3 -> 399 ;
400 [label="X[1458] <= 0.5\ngini = 0.231\nsamples = 15\nvalue = [13, 0, 2]"] ;
399 -> 400 ;
401 [label="X[1269] <= 0.5\ngini = 0.133\nsamples = 14\nvalue = [13, 0, 1]"] ;
400 -> 401 ;
402 [label="gini = 0.0\nsamples = 13\nvalue = [13, 0, 0]"] ;
401 -> 402 ;
403 [label="gini = 0.0\nsamples = 1\nvalue = [0, 0, 1]"] ;
401 -> 403 ;
404 [label="gini = 0.0\nsamples = 1\nvalue = [0, 0, 1]"] ;
400 -> 404 ;
405 [label="gini = 0.0\nsamples = 1\nvalue = [0, 1, 0]"] ;
399 -> 405 ;
406 [label="gini = 0.0\nsamples = 11\nvalue = [11, 0, 0]"] ;
2 -> 406 ;
407 [label="X[1273] <= 0.5\ngini = 0.625\nsamples = 44\nvalue = [22, 11, 11]"] ;
1 -> 407 ;
408 [label="X[1406] <= 0.5\ngini = 0.661\nsamples = 28\nvalue = [8, 11, 9]"] ;
407 -> 408 ;
409 [label="X[47] <= 0.5\ngini = 0.495\nsamples = 20\nvalue = [0, 11, 9]"] ;
408 -> 409 ;
410 [label="X[169] <= 0.5\ngini = 0.457\nsamples = 17\nvalue = [0, 11, 6]"] ;
409 -> 410 ;
411 [label="X[1106] <= 0.5\ngini = 0.391\nsamples = 15\nvalue = [0, 11, 4]"] ;
410 -> 411 ;
412 [label="X[1113] <= 0.5\ngini = 0.278\nsamples = 12\nvalue = [0, 10, 2]"] ;
411 -> 412 ;
413 [label="X[554] <= 0.5\ngini = 0.165\nsamples = 11\nvalue = [0, 10, 1]"] ;
412 -> 413 ;
414 [label="gini = 0.0\nsamples = 10\nvalue = [0, 10, 0]"] ;
413 -> 414 ;
415 [label="gini = 0.0\nsamples = 1\nvalue = [0, 0, 1]"] ;
413 -> 415 ;
416 [label="gini = 0.0\nsamples = 1\nvalue = [0, 0, 1]"] ;
412 -> 416 ;
417 [label="X[670] <= 0.5\ngini = 0.444\nsamples = 3\nvalue = [0, 1, 2]"] ;
411 -> 417 ;
418 [label="gini = 0.0\nsamples = 2\nvalue = [0, 0, 2]"] ;
417 -> 418 ;
419 [label="gini = 0.0\nsamples = 1\nvalue = [0, 1, 0]"] ;
417 -> 419 ;
420 [label="gini = 0.0\nsamples = 2\nvalue = [0, 0, 2]"] ;
410 -> 420 ;
421 [label="gini = 0.0\nsamples = 3\nvalue = [0, 0, 3]"] ;
409 -> 421 ;
422 [label="gini = 0.0\nsamples = 8\nvalue = [8, 0, 0]"] ;
408 -> 422 ;
423 [label="X[1404] <= 0.5\ngini = 0.219\nsamples = 16\nvalue = [14, 0, 2]"] ;
407 -> 423 ;
424 [label="gini = 0.0\nsamples = 14\nvalue = [14, 0, 0]"] ;
423 -> 424 ;
425 [label="gini = 0.0\nsamples = 2\nvalue = [0, 0, 2]"] ;
423 -> 425 ;
426 [label="X[278] <= 0.5\ngini = 0.455\nsamples = 55\nvalue = [3, 14, 38]"] ;
0 -> 426 [labeldistance=2.5, labelangle=-45, headlabel="False"] ;
427 [label="X[164] <= 0.5\ngini = 0.393\nsamples = 52\nvalue = [0, 14, 38]"] ;
426 -> 427 ;
428 [label="X[1275] <= 0.5\ngini = 0.348\nsamples = 49\nvalue = [0, 11, 38]"] ;
427 -> 428 ;
429 [label="X[449] <= 0.5\ngini = 0.287\nsamples = 46\nvalue = [0, 8, 38]"] ;
428 -> 429 ;
430 [label="X[1318] <= 0.5\ngini = 0.236\nsamples = 44\nvalue = [0, 6, 38]"] ;
429 -> 430 ;
431 [label="X[307] <= 0.5\ngini = 0.172\nsamples = 42\nvalue = [0, 4, 38]"] ;
430 -> 431 ;
432 [label="X[47] <= 0.5\ngini = 0.136\nsamples = 41\nvalue = [0, 3, 38]"] ;
431 -> 432 ;
433 [label="gini = 0.0\nsamples = 33\nvalue = [0, 0, 33]"] ;
432 -> 433 ;
434 [label="X[1106] <= 0.5\ngini = 0.469\nsamples = 8\nvalue = [0, 3, 5]"] ;
432 -> 434 ;
435 [label="X[504] <= 0.5\ngini = 0.48\nsamples = 5\nvalue = [0, 3, 2]"] ;
434 -> 435 ;
436 [label="gini = 0.375\nsamples = 4\nvalue = [0, 3, 1]"] ;
435 -> 436 ;
437 [label="gini = 0.0\nsamples = 1\nvalue = [0, 0, 1]"] ;
435 -> 437 ;
438 [label="gini = 0.0\nsamples = 3\nvalue = [0, 0, 3]"] ;
434 -> 438 ;
439 [label="gini = 0.0\nsamples = 1\nvalue = [0, 1, 0]"] ;
431 -> 439 ;
440 [label="gini = 0.0\nsamples = 2\nvalue = [0, 2, 0]"] ;
430 -> 440 ;
441 [label="gini = 0.0\nsamples = 2\nvalue = [0, 2, 0]"] ;
429 -> 441 ;
442 [label="gini = 0.0\nsamples = 3\nvalue = [0, 3, 0]"] ;
428 -> 442 ;
443 [label="gini = 0.0\nsamples = 3\nvalue = [0, 3, 0]"] ;
427 -> 443 ;
444 [label="gini = 0.0\nsamples = 3\nvalue = [3, 0, 0]"] ;
426 -> 444 ;
}